digraph Tree {
node [shape=box] ;
0 [label="kw_avg_avg <= 3391.229\nmse = 0.872\nsamples = 3715\nvalue = 7.465"] ;
1 [label="self_reference_avg_sharess <= 1753.125\nmse = 0.634\nsamples = 2410\nvalue = 7.258"] ;
0 -> 1 [labeldistance=2.5, labelangle=45, headlabel="True"] ;
2 [label="kw_max_avg <= 3443.824\nmse = 0.595\nsamples = 1226\nvalue = 7.122"] ;
1 -> 2 ;
3 [label="LDA_03 <= 0.051\nmse = 0.556\nsamples = 479\nvalue = 6.963"] ;
2 -> 3 ;
4 [label="mse = 0.481\nsamples = 417\nvalue = 7.014"] ;
3 -> 4 ;
5 [label="mse = 0.927\nsamples = 62\nvalue = 6.622"] ;
3 -> 5 ;
6 [label="n_non_stop_unique_tokens <= 0.597\nmse = 0.594\nsamples = 747\nvalue = 7.224"] ;
2 -> 6 ;
7 [label="mse = 0.858\nsamples = 146\nvalue = 7.444"] ;
6 -> 7 ;
8 [label="mse = 0.515\nsamples = 601\nvalue = 7.17"] ;
6 -> 8 ;
9 [label="timedelta <= 86.5\nmse = 0.635\nsamples = 1184\nvalue = 7.399"] ;
1 -> 9 ;
10 [label="data_channel_is_tech <= 0.5\nmse = 0.567\nsamples = 1153\nvalue = 7.359"] ;
9 -> 10 ;
11 [label="mse = 0.572\nsamples = 880\nvalue = 7.295"] ;
10 -> 11 ;
12 [label="mse = 0.499\nsamples = 273\nvalue = 7.563"] ;
10 -> 12 ;
13 [label="mse = 0.784\nsamples = 31\nvalue = 8.917"] ;
9 -> 13 ;
14 [label="timedelta <= 86.5\nmse = 1.088\nsamples = 1305\nvalue = 7.846"] ;
0 -> 14 [labeldistance=2.5, labelangle=-45, headlabel="False"] ;
15 [label="self_reference_min_shares <= 3450.0\nmse = 1.051\nsamples = 1228\nvalue = 7.779"] ;
14 -> 15 ;
16 [label="kw_avg_avg <= 5031.198\nmse = 1.019\nsamples = 940\nvalue = 7.705"] ;
15 -> 16 ;
17 [label="mse = 0.851\nsamples = 724\nvalue = 7.618"] ;
16 -> 17 ;
18 [label="mse = 1.47\nsamples = 216\nvalue = 7.995"] ;
16 -> 18 ;
19 [label="max_positive_polarity <= 0.65\nmse = 1.079\nsamples = 288\nvalue = 8.023"] ;
15 -> 19 ;
20 [label="mse = 0.89\nsamples = 80\nvalue = 7.714"] ;
19 -> 20 ;
21 [label="mse = 1.1\nsamples = 208\nvalue = 8.142"] ;
19 -> 21 ;
22 [label="kw_max_min <= 833.5\nmse = 0.47\nsamples = 77\nvalue = 8.911"] ;
14 -> 22 ;
23 [label="rate_negative_words <= 0.278\nmse = 0.336\nsamples = 50\nvalue = 8.775"] ;
22 -> 23 ;
24 [label="mse = 0.228\nsamples = 27\nvalue = 8.638"] ;
23 -> 24 ;
25 [label="mse = 0.415\nsamples = 23\nvalue = 8.936"] ;
23 -> 25 ;
26 [label="mse = 0.619\nsamples = 27\nvalue = 9.163"] ;
22 -> 26 ;
}
